<?xml version="1.0" encoding="UTF-8" standalone="yes"?>
<PMML xmlns="http://www.dmg.org/PMML-4_4" xmlns:data="http://jpmml.org/jpmml-model/InlineTable" version="4.4">
	<Header>
		<Application name="R2PMML package" version="0.30.0"/>
		<Timestamp>2025-03-26T12:00:02Z</Timestamp>
	</Header>
	<DataDictionary>
		<DataField name="y" optype="categorical" dataType="integer">
			<Value value="0"/>
			<Value value="1"/>
		</DataField>
		<DataField name="smoker" optype="continuous" dataType="double"/>
		<DataField name="carace" optype="continuous" dataType="double"/>
		<DataField name="Hypertension" optype="continuous" dataType="double"/>
		<DataField name="HHR" optype="continuous" dataType="double"/>
		<DataField name="RIDAGEYR" optype="continuous" dataType="double"/>
		<DataField name="INDFMPIR" optype="continuous" dataType="double"/>
		<DataField name="LBXWBCSI" optype="continuous" dataType="double"/>
		<DataField name="BMXBMI" optype="continuous" dataType="double"/>
		<DataField name="drink" optype="continuous" dataType="double"/>
	</DataDictionary>
	<MiningModel functionName="classification">
		<MiningSchema>
			<MiningField name="y" usageType="target"/>
			<MiningField name="smoker"/>
			<MiningField name="carace"/>
			<MiningField name="Hypertension"/>
			<MiningField name="HHR"/>
			<MiningField name="RIDAGEYR"/>
			<MiningField name="INDFMPIR"/>
			<MiningField name="LBXWBCSI"/>
			<MiningField name="BMXBMI"/>
			<MiningField name="drink"/>
		</MiningSchema>
		<Segmentation multipleModelMethod="modelChain" missingPredictionTreatment="returnMissing">
			<Segment id="1">
				<True/>
				<MiningModel functionName="regression">
					<MiningSchema>
						<MiningField name="smoker"/>
						<MiningField name="carace"/>
						<MiningField name="Hypertension"/>
						<MiningField name="HHR"/>
						<MiningField name="RIDAGEYR"/>
						<MiningField name="INDFMPIR"/>
						<MiningField name="LBXWBCSI"/>
						<MiningField name="BMXBMI"/>
						<MiningField name="drink"/>
					</MiningSchema>
					<Output>
						<OutputField name="gbmValue" optype="continuous" dataType="double" isFinalResult="false"/>
					</Output>
					<Segmentation multipleModelMethod="sum" missingPredictionTreatment="returnMissing">
						<Segment id="1">
							<True/>
							<TreeModel functionName="regression">
								<MiningSchema>
									<MiningField name="HHR"/>
									<MiningField name="RIDAGEYR"/>
									<MiningField name="INDFMPIR"/>
									<MiningField name="BMXBMI"/>
								</MiningSchema>
								<Node id="1">
									<True/>
									<Node id="16" score="0.007361002349256074">
										<SimplePredicate field="INDFMPIR" operator="isMissing"/>
									</Node>
									<Node id="2">
										<SimplePredicate field="INDFMPIR" operator="lessThan" value="2.308887199535965"/>
										<Node id="8" score="-0.02316213494461228">
											<SimplePredicate field="RIDAGEYR" operator="isMissing"/>
										</Node>
										<Node id="3" score="0.09387755102040818">
											<SimplePredicate field="RIDAGEYR" operator="lessThan" value="58.075135175953605"/>
										</Node>
										<Node id="4">
											<SimplePredicate field="RIDAGEYR" operator="greaterOrEqual" value="58.075135175953605"/>
											<Node id="5" score="0.13333333333333333">
												<SimplePredicate field="INDFMPIR" operator="lessThan" value="0.64"/>
											</Node>
											<Node id="6" score="-0.059191655801825296">
												<SimplePredicate field="INDFMPIR" operator="greaterOrEqual" value="0.64"/>
											</Node>
										</Node>
									</Node>
									<Node id="9">
										<SimplePredicate field="INDFMPIR" operator="greaterOrEqual" value="2.308887199535965"/>
										<Node id="15" score="0.11408450704225354">
											<SimplePredicate field="HHR" operator="isMissing"/>
										</Node>
										<Node id="10">
											<SimplePredicate field="HHR" operator="lessThan" value="1.0109126984127"/>
											<Node id="13" score="0.0064516129032258064">
												<SimplePredicate field="BMXBMI" operator="isMissing"/>
											</Node>
											<Node id="11" score="-0.10144927536231885">
												<SimplePredicate field="BMXBMI" operator="lessThan" value="26.14389430729205"/>
											</Node>
											<Node id="12" score="0.14181818181818182">
												<SimplePredicate field="BMXBMI" operator="greaterOrEqual" value="26.14389430729205"/>
											</Node>
										</Node>
										<Node id="14" score="0.1975">
											<SimplePredicate field="HHR" operator="greaterOrEqual" value="1.0109126984127"/>
										</Node>
									</Node>
								</Node>
							</TreeModel>
						</Segment>
						<Segment id="2">
							<True/>
							<TreeModel functionName="regression">
								<MiningSchema>
									<MiningField name="HHR"/>
									<MiningField name="RIDAGEYR"/>
									<MiningField name="INDFMPIR"/>
									<MiningField name="LBXWBCSI"/>
									<MiningField name="BMXBMI"/>
								</MiningSchema>
								<Node id="1">
									<True/>
									<Node id="16" score="0.0019473550098669365">
										<SimplePredicate field="INDFMPIR" operator="isMissing"/>
									</Node>
									<Node id="2">
										<SimplePredicate field="INDFMPIR" operator="lessThan" value="1.464928242750465"/>
										<Node id="8" score="-0.04281224158017447">
											<SimplePredicate field="RIDAGEYR" operator="isMissing"/>
										</Node>
										<Node id="3" score="0.0856981817077036">
											<SimplePredicate field="RIDAGEYR" operator="lessThan" value="58.076891022967146"/>
										</Node>
										<Node id="4">
											<SimplePredicate field="RIDAGEYR" operator="greaterOrEqual" value="58.076891022967146"/>
											<Node id="7" score="-0.07181706528765272">
												<SimplePredicate field="LBXWBCSI" operator="isMissing"/>
											</Node>
											<Node id="5" score="-0.015575998015036646">
												<SimplePredicate field="LBXWBCSI" operator="lessThan" value="7.200783557386606"/>
											</Node>
											<Node id="6" score="-0.1196562658030792">
												<SimplePredicate field="LBXWBCSI" operator="greaterOrEqual" value="7.200783557386606"/>
											</Node>
										</Node>
									</Node>
									<Node id="9">
										<SimplePredicate field="INDFMPIR" operator="greaterOrEqual" value="1.464928242750465"/>
										<Node id="15" score="0.06442604143198853">
											<SimplePredicate field="BMXBMI" operator="isMissing"/>
										</Node>
										<Node id="10">
											<SimplePredicate field="BMXBMI" operator="lessThan" value="27.28389087795515"/>
											<Node id="13" score="0.0068032134515309236">
												<SimplePredicate field="HHR" operator="isMissing"/>
											</Node>
											<Node id="11" score="-0.05341305930159897">
												<SimplePredicate field="HHR" operator="lessThan" value="1.029091997230635"/>
											</Node>
											<Node id="12" score="0.10314924985653875">
												<SimplePredicate field="HHR" operator="greaterOrEqual" value="1.029091997230635"/>
											</Node>
										</Node>
										<Node id="14" score="0.1311472106725184">
											<SimplePredicate field="BMXBMI" operator="greaterOrEqual" value="27.28389087795515"/>
										</Node>
									</Node>
								</Node>
							</TreeModel>
						</Segment>
						<Segment id="3">
							<True/>
							<TreeModel functionName="regression">
								<MiningSchema>
									<MiningField name="HHR"/>
									<MiningField name="RIDAGEYR"/>
									<MiningField name="INDFMPIR"/>
									<MiningField name="LBXWBCSI"/>
									<MiningField name="BMXBMI"/>
								</MiningSchema>
								<Node id="1">
									<True/>
									<Node id="16" score="-0.0013716609616825724">
										<SimplePredicate field="INDFMPIR" operator="isMissing"/>
									</Node>
									<Node id="2">
										<SimplePredicate field="INDFMPIR" operator="lessThan" value="2.3079770698293602"/>
										<Node id="8" score="-0.0276912223899937">
											<SimplePredicate field="RIDAGEYR" operator="isMissing"/>
										</Node>
										<Node id="3" score="0.06394361465248918">
											<SimplePredicate field="RIDAGEYR" operator="lessThan" value="58.067503108060905"/>
										</Node>
										<Node id="4">
											<SimplePredicate field="RIDAGEYR" operator="greaterOrEqual" value="58.067503108060905"/>
											<Node id="7" score="-0.04754913501784411">
												<SimplePredicate field="LBXWBCSI" operator="isMissing"/>
											</Node>
											<Node id="5" score="-0.004324972105634725">
												<SimplePredicate field="LBXWBCSI" operator="lessThan" value="6.708307072287425"/>
											</Node>
											<Node id="6" score="-0.07573128923660462">
												<SimplePredicate field="LBXWBCSI" operator="greaterOrEqual" value="6.708307072287425"/>
											</Node>
										</Node>
									</Node>
									<Node id="9">
										<SimplePredicate field="INDFMPIR" operator="greaterOrEqual" value="2.3079770698293602"/>
										<Node id="15" score="0.09587524799218758">
											<SimplePredicate field="HHR" operator="isMissing"/>
										</Node>
										<Node id="10">
											<SimplePredicate field="HHR" operator="lessThan" value="1.0109126984127"/>
											<Node id="13" score="0.012040040455217128">
												<SimplePredicate field="BMXBMI" operator="isMissing"/>
											</Node>
											<Node id="11" score="-0.09419807410038522">
												<SimplePredicate field="BMXBMI" operator="lessThan" value="25.7"/>
											</Node>
											<Node id="12" score="0.12513222691763254">
												<SimplePredicate field="BMXBMI" operator="greaterOrEqual" value="25.7"/>
											</Node>
										</Node>
										<Node id="14" score="0.17039543246949462">
											<SimplePredicate field="HHR" operator="greaterOrEqual" value="1.0109126984127"/>
										</Node>
									</Node>
								</Node>
							</TreeModel>
						</Segment>
						<Segment id="4">
							<True/>
							<TreeModel functionName="regression">
								<MiningSchema>
									<MiningField name="RIDAGEYR"/>
									<MiningField name="INDFMPIR"/>
									<MiningField name="LBXWBCSI"/>
								</MiningSchema>
								<Node id="1">
									<True/>
									<Node id="16" score="0.0010725375913147358">
										<SimplePredicate field="INDFMPIR" operator="isMissing"/>
									</Node>
									<Node id="2">
										<SimplePredicate field="INDFMPIR" operator="lessThan" value="2.308887199535965"/>
										<Node id="11" score="-0.021531725094463966">
											<SimplePredicate field="RIDAGEYR" operator="isMissing"/>
										</Node>
										<Node id="3" score="0.08837923288693154">
											<SimplePredicate field="RIDAGEYR" operator="lessThan" value="56.5"/>
										</Node>
										<Node id="4">
											<SimplePredicate field="RIDAGEYR" operator="greaterOrEqual" value="56.5"/>
											<Node id="5" score="0.10495962096747609">
												<SimplePredicate field="INDFMPIR" operator="lessThan" value="0.64"/>
											</Node>
											<Node id="6">
												<SimplePredicate field="INDFMPIR" operator="greaterOrEqual" value="0.64"/>
												<Node id="7" score="-0.10974084139013099">
													<SimplePredicate field="INDFMPIR" operator="lessThan" value="0.8393069206806829"/>
												</Node>
												<Node id="8" score="-0.026717964220525026">
													<SimplePredicate field="INDFMPIR" operator="greaterOrEqual" value="0.8393069206806829"/>
												</Node>
											</Node>
										</Node>
									</Node>
									<Node id="12">
										<SimplePredicate field="INDFMPIR" operator="greaterOrEqual" value="2.308887199535965"/>
										<Node id="15" score="0.08119298469108552">
											<SimplePredicate field="LBXWBCSI" operator="isMissing"/>
										</Node>
										<Node id="13" score="0.11032846290738352">
											<SimplePredicate field="LBXWBCSI" operator="lessThan" value="12.350000000000001"/>
										</Node>
										<Node id="14" score="-0.1377645485707905">
											<SimplePredicate field="LBXWBCSI" operator="greaterOrEqual" value="12.350000000000001"/>
										</Node>
									</Node>
								</Node>
							</TreeModel>
						</Segment>
						<Segment id="5">
							<True/>
							<TreeModel functionName="regression">
								<MiningSchema>
									<MiningField name="carace"/>
									<MiningField name="HHR"/>
									<MiningField name="INDFMPIR"/>
									<MiningField name="LBXWBCSI"/>
									<MiningField name="BMXBMI"/>
								</MiningSchema>
								<Node id="1">
									<True/>
									<Node id="16" score="0.0025220856227620527">
										<SimplePredicate field="INDFMPIR" operator="isMissing"/>
									</Node>
									<Node id="2">
										<SimplePredicate field="INDFMPIR" operator="lessThan" value="1.255"/>
										<Node id="5" score="-0.03976683660486651">
											<SimplePredicate field="carace" operator="isMissing"/>
										</Node>
										<Node id="3" score="-0.05006665578052014">
											<SimplePredicate field="carace" operator="lessThan" value="4.5"/>
										</Node>
										<Node id="4" score="0.1619102678990611">
											<SimplePredicate field="carace" operator="greaterOrEqual" value="4.5"/>
										</Node>
									</Node>
									<Node id="6">
										<SimplePredicate field="INDFMPIR" operator="greaterOrEqual" value="1.255"/>
										<Node id="15" score="0.04474482800339902">
											<SimplePredicate field="HHR" operator="isMissing"/>
										</Node>
										<Node id="7">
											<SimplePredicate field="HHR" operator="lessThan" value="1.09053651266766"/>
											<Node id="10" score="0.0017956996217317785">
												<SimplePredicate field="BMXBMI" operator="isMissing"/>
											</Node>
											<Node id="8" score="-0.019134966488979815">
												<SimplePredicate field="BMXBMI" operator="lessThan" value="32.7"/>
											</Node>
											<Node id="9" score="0.15241441457528382">
												<SimplePredicate field="BMXBMI" operator="greaterOrEqual" value="32.7"/>
											</Node>
										</Node>
										<Node id="11">
											<SimplePredicate field="HHR" operator="greaterOrEqual" value="1.09053651266766"/>
											<Node id="14" score="0.12597892602845293">
												<SimplePredicate field="LBXWBCSI" operator="isMissing"/>
											</Node>
											<Node id="12" score="-0.062060366775031475">
												<SimplePredicate field="LBXWBCSI" operator="lessThan" value="4.85"/>
											</Node>
											<Node id="13" score="0.15551389348449757">
												<SimplePredicate field="LBXWBCSI" operator="greaterOrEqual" value="4.85"/>
											</Node>
										</Node>
									</Node>
								</Node>
							</TreeModel>
						</Segment>
						<Segment id="6">
							<True/>
							<TreeModel functionName="regression">
								<MiningSchema>
									<MiningField name="HHR"/>
									<MiningField name="RIDAGEYR"/>
									<MiningField name="INDFMPIR"/>
									<MiningField name="BMXBMI"/>
								</MiningSchema>
								<Node id="1">
									<True/>
									<Node id="16" score="-0.003105626611702605">
										<SimplePredicate field="HHR" operator="isMissing"/>
									</Node>
									<Node id="2" score="-0.09903090915447539">
										<SimplePredicate field="HHR" operator="lessThan" value="0.77009310167177"/>
									</Node>
									<Node id="3">
										<SimplePredicate field="HHR" operator="greaterOrEqual" value="0.77009310167177"/>
										<Node id="15" score="0.012532465897547237">
											<SimplePredicate field="INDFMPIR" operator="isMissing"/>
										</Node>
										<Node id="4">
											<SimplePredicate field="INDFMPIR" operator="lessThan" value="2.4487138719938253"/>
											<Node id="10" score="-0.008015723516626402">
												<SimplePredicate field="RIDAGEYR" operator="isMissing"/>
											</Node>
											<Node id="5" score="0.10630883144214912">
												<SimplePredicate field="RIDAGEYR" operator="lessThan" value="56.5"/>
											</Node>
											<Node id="6">
												<SimplePredicate field="RIDAGEYR" operator="greaterOrEqual" value="56.5"/>
												<Node id="7" score="0.19000859962066366">
													<SimplePredicate field="INDFMPIR" operator="lessThan" value="0.64"/>
												</Node>
												<Node id="8" score="-0.039060851758420556">
													<SimplePredicate field="INDFMPIR" operator="greaterOrEqual" value="0.64"/>
												</Node>
											</Node>
										</Node>
										<Node id="11">
											<SimplePredicate field="INDFMPIR" operator="greaterOrEqual" value="2.4487138719938253"/>
											<Node id="14" score="0.09790874585784617">
												<SimplePredicate field="BMXBMI" operator="isMissing"/>
											</Node>
											<Node id="12" score="-0.07340115517816509">
												<SimplePredicate field="BMXBMI" operator="lessThan" value="22.3780075641116"/>
											</Node>
											<Node id="13" score="0.12819557919017965">
												<SimplePredicate field="BMXBMI" operator="greaterOrEqual" value="22.3780075641116"/>
											</Node>
										</Node>
									</Node>
								</Node>
							</TreeModel>
						</Segment>
						<Segment id="7">
							<True/>
							<TreeModel functionName="regression">
								<MiningSchema>
									<MiningField name="HHR"/>
									<MiningField name="INDFMPIR"/>
									<MiningField name="LBXWBCSI"/>
									<MiningField name="BMXBMI"/>
								</MiningSchema>
								<Node id="1">
									<True/>
									<Node id="16" score="-0.005787766623748247">
										<SimplePredicate field="LBXWBCSI" operator="isMissing"/>
									</Node>
									<Node id="2" score="0.1916898947967912">
										<SimplePredicate field="LBXWBCSI" operator="lessThan" value="4.25"/>
									</Node>
									<Node id="3">
										<SimplePredicate field="LBXWBCSI" operator="greaterOrEqual" value="4.25"/>
										<Node id="15" score="-0.0113527570824591">
											<SimplePredicate field="HHR" operator="isMissing"/>
										</Node>
										<Node id="4" score="-0.10255459763866587">
											<SimplePredicate field="HHR" operator="lessThan" value="0.7749503475670305"/>
										</Node>
										<Node id="5">
											<SimplePredicate field="HHR" operator="greaterOrEqual" value="0.7749503475670305"/>
											<Node id="14" score="0.0038047319113893477">
												<SimplePredicate field="INDFMPIR" operator="isMissing"/>
											</Node>
											<Node id="6">
												<SimplePredicate field="INDFMPIR" operator="lessThan" value="2.379572199333925"/>
												<Node id="12" score="-0.01770190929476032">
													<SimplePredicate field="BMXBMI" operator="isMissing"/>
												</Node>
												<Node id="7" score="-0.040564874191906165">
													<SimplePredicate field="BMXBMI" operator="lessThan" value="31.79662365783005"/>
												</Node>
												<Node id="8">
													<SimplePredicate field="BMXBMI" operator="greaterOrEqual" value="31.79662365783005"/>
													<Node id="9" score="0.12481615792126739">
														<SimplePredicate field="LBXWBCSI" operator="lessThan" value="9.05"/>
													</Node>
													<Node id="10" score="-0.0958365506129582">
														<SimplePredicate field="LBXWBCSI" operator="greaterOrEqual" value="9.05"/>
													</Node>
												</Node>
											</Node>
											<Node id="13" score="0.08455064822554947">
												<SimplePredicate field="INDFMPIR" operator="greaterOrEqual" value="2.379572199333925"/>
											</Node>
										</Node>
									</Node>
								</Node>
							</TreeModel>
						</Segment>
						<Segment id="8">
							<True/>
							<TreeModel functionName="regression">
								<MiningSchema>
									<MiningField name="HHR"/>
									<MiningField name="RIDAGEYR"/>
									<MiningField name="INDFMPIR"/>
									<MiningField name="BMXBMI"/>
								</MiningSchema>
								<Node id="1">
									<True/>
									<Node id="16" score="0.004787184506611093">
										<SimplePredicate field="INDFMPIR" operator="isMissing"/>
									</Node>
									<Node id="2">
										<SimplePredicate field="INDFMPIR" operator="lessThan" value="2.307826038114725"/>
										<Node id="14" score="-0.013546550654040746">
											<SimplePredicate field="RIDAGEYR" operator="isMissing"/>
										</Node>
										<Node id="3">
											<SimplePredicate field="RIDAGEYR" operator="lessThan" value="70.10786138637926"/>
											<Node id="6" score="0.021777576779027644">
												<SimplePredicate field="BMXBMI" operator="isMissing"/>
											</Node>
											<Node id="4" score="-0.0697816883372089">
												<SimplePredicate field="BMXBMI" operator="lessThan" value="24.05"/>
											</Node>
											<Node id="5" score="0.05988158232141351">
												<SimplePredicate field="BMXBMI" operator="greaterOrEqual" value="24.05"/>
											</Node>
										</Node>
										<Node id="7">
											<SimplePredicate field="RIDAGEYR" operator="greaterOrEqual" value="70.10786138637926"/>
											<Node id="8" score="-0.09383540110933443">
												<SimplePredicate field="RIDAGEYR" operator="lessThan" value="76.9972436230164"/>
											</Node>
											<Node id="9">
												<SimplePredicate field="RIDAGEYR" operator="greaterOrEqual" value="76.9972436230164"/>
												<Node id="12" score="-0.007250618533042487">
													<SimplePredicate field="HHR" operator="isMissing"/>
												</Node>
												<Node id="10" score="0.15023330907668278">
													<SimplePredicate field="HHR" operator="lessThan" value="0.928553427419355"/>
												</Node>
												<Node id="11" score="-0.042982265973904525">
													<SimplePredicate field="HHR" operator="greaterOrEqual" value="0.928553427419355"/>
												</Node>
											</Node>
										</Node>
									</Node>
									<Node id="15" score="0.06977081518280052">
										<SimplePredicate field="INDFMPIR" operator="greaterOrEqual" value="2.307826038114725"/>
									</Node>
								</Node>
							</TreeModel>
						</Segment>
						<Segment id="9">
							<True/>
							<TreeModel functionName="regression">
								<MiningSchema>
									<MiningField name="HHR"/>
									<MiningField name="INDFMPIR"/>
									<MiningField name="LBXWBCSI"/>
									<MiningField name="BMXBMI"/>
								</MiningSchema>
								<Node id="1">
									<True/>
									<Node id="16" score="0.002062962932247763">
										<SimplePredicate field="HHR" operator="isMissing"/>
									</Node>
									<Node id="2" score="-0.08366365566230961">
										<SimplePredicate field="HHR" operator="lessThan" value="0.7818936594762584"/>
									</Node>
									<Node id="3">
										<SimplePredicate field="HHR" operator="greaterOrEqual" value="0.7818936594762584"/>
										<Node id="15" score="0.01704737648603424">
											<SimplePredicate field="INDFMPIR" operator="isMissing"/>
										</Node>
										<Node id="4">
											<SimplePredicate field="INDFMPIR" operator="lessThan" value="1.255"/>
											<Node id="10" score="-0.019679670837129872">
												<SimplePredicate field="LBXWBCSI" operator="isMissing"/>
											</Node>
											<Node id="5">
												<SimplePredicate field="LBXWBCSI" operator="lessThan" value="8.666278036311269"/>
												<Node id="8" score="0.014733260942812076">
													<SimplePredicate field="BMXBMI" operator="isMissing"/>
												</Node>
												<Node id="6" score="-0.004510038538074108">
													<SimplePredicate field="BMXBMI" operator="lessThan" value="33.7"/>
												</Node>
												<Node id="7" score="0.1986136782046134">
													<SimplePredicate field="BMXBMI" operator="greaterOrEqual" value="33.7"/>
												</Node>
											</Node>
											<Node id="9" score="-0.09074985603483607">
												<SimplePredicate field="LBXWBCSI" operator="greaterOrEqual" value="8.666278036311269"/>
											</Node>
										</Node>
										<Node id="11">
											<SimplePredicate field="INDFMPIR" operator="greaterOrEqual" value="1.255"/>
											<Node id="14" score="0.05665359960317489">
												<SimplePredicate field="BMXBMI" operator="isMissing"/>
											</Node>
											<Node id="12" score="0.03193693751936514">
												<SimplePredicate field="BMXBMI" operator="lessThan" value="32.7"/>
											</Node>
											<Node id="13" score="0.15053156384810373">
												<SimplePredicate field="BMXBMI" operator="greaterOrEqual" value="32.7"/>
											</Node>
										</Node>
									</Node>
								</Node>
							</TreeModel>
						</Segment>
						<Segment id="10">
							<True/>
							<TreeModel functionName="regression">
								<MiningSchema>
									<MiningField name="carace"/>
									<MiningField name="RIDAGEYR"/>
									<MiningField name="INDFMPIR"/>
									<MiningField name="LBXWBCSI"/>
								</MiningSchema>
								<Node id="1">
									<True/>
									<Node id="16" score="-0.00720271632846695">
										<SimplePredicate field="INDFMPIR" operator="isMissing"/>
									</Node>
									<Node id="2">
										<SimplePredicate field="INDFMPIR" operator="lessThan" value="1.44701508826809"/>
										<Node id="14" score="-0.03266729945233323">
											<SimplePredicate field="carace" operator="isMissing"/>
										</Node>
										<Node id="3">
											<SimplePredicate field="carace" operator="lessThan" value="4.5"/>
											<Node id="12" score="-0.0419828267495798">
												<SimplePredicate field="LBXWBCSI" operator="isMissing"/>
											</Node>
											<Node id="4">
												<SimplePredicate field="LBXWBCSI" operator="lessThan" value="6.700509896362201"/>
												<Node id="10" score="0.015172828552030337">
													<SimplePredicate field="RIDAGEYR" operator="isMissing"/>
												</Node>
												<Node id="5" score="0.153749818879658">
													<SimplePredicate field="RIDAGEYR" operator="lessThan" value="65.57555381162089"/>
												</Node>
												<Node id="6">
													<SimplePredicate field="RIDAGEYR" operator="greaterOrEqual" value="65.57555381162089"/>
													<Node id="7" score="-0.06537359295783958">
														<SimplePredicate field="RIDAGEYR" operator="lessThan" value="77.68424984673041"/>
													</Node>
													<Node id="8" score="0.14559650944412825">
														<SimplePredicate field="RIDAGEYR" operator="greaterOrEqual" value="77.68424984673041"/>
													</Node>
												</Node>
											</Node>
											<Node id="11" score="-0.06924535689344406">
												<SimplePredicate field="LBXWBCSI" operator="greaterOrEqual" value="6.700509896362201"/>
											</Node>
										</Node>
										<Node id="13" score="0.1450830322194528">
											<SimplePredicate field="carace" operator="greaterOrEqual" value="4.5"/>
										</Node>
									</Node>
									<Node id="15" score="0.02822834221279268">
										<SimplePredicate field="INDFMPIR" operator="greaterOrEqual" value="1.44701508826809"/>
									</Node>
								</Node>
							</TreeModel>
						</Segment>
						<Segment id="11">
							<True/>
							<TreeModel functionName="regression">
								<MiningSchema>
									<MiningField name="INDFMPIR"/>
									<MiningField name="LBXWBCSI"/>
									<MiningField name="BMXBMI"/>
								</MiningSchema>
								<Node id="1">
									<True/>
									<Node id="16" score="0.003418512476674364">
										<SimplePredicate field="INDFMPIR" operator="isMissing"/>
									</Node>
									<Node id="2">
										<SimplePredicate field="INDFMPIR" operator="lessThan" value="1.255"/>
										<Node id="3">
											<SimplePredicate field="INDFMPIR" operator="lessThan" value="1.244963856970425"/>
											<Node id="6" score="-0.021690404420535745">
												<SimplePredicate field="LBXWBCSI" operator="isMissing"/>
											</Node>
											<Node id="4" score="0.12451066391144905">
												<SimplePredicate field="LBXWBCSI" operator="lessThan" value="5.128993929969145"/>
											</Node>
											<Node id="5" score="-0.03281145043465704">
												<SimplePredicate field="LBXWBCSI" operator="greaterOrEqual" value="5.128993929969145"/>
											</Node>
										</Node>
										<Node id="7" score="-0.16286643195645634">
											<SimplePredicate field="INDFMPIR" operator="greaterOrEqual" value="1.244963856970425"/>
										</Node>
									</Node>
									<Node id="9">
										<SimplePredicate field="INDFMPIR" operator="greaterOrEqual" value="1.255"/>
										<Node id="15" score="0.0357085727167156">
											<SimplePredicate field="BMXBMI" operator="isMissing"/>
										</Node>
										<Node id="10">
											<SimplePredicate field="BMXBMI" operator="lessThan" value="32.900000000000006"/>
											<Node id="13" score="0.014564943683592424">
												<SimplePredicate field="LBXWBCSI" operator="isMissing"/>
											</Node>
											<Node id="11" score="0.024040301269919483">
												<SimplePredicate field="LBXWBCSI" operator="lessThan" value="12.31397509489905"/>
											</Node>
											<Node id="12" score="-0.12589329818431455">
												<SimplePredicate field="LBXWBCSI" operator="greaterOrEqual" value="12.31397509489905"/>
											</Node>
										</Node>
										<Node id="14" score="0.13129909725302036">
											<SimplePredicate field="BMXBMI" operator="greaterOrEqual" value="32.900000000000006"/>
										</Node>
									</Node>
								</Node>
							</TreeModel>
						</Segment>
						<Segment id="12">
							<True/>
							<TreeModel functionName="regression">
								<MiningSchema>
									<MiningField name="HHR"/>
									<MiningField name="RIDAGEYR"/>
									<MiningField name="LBXWBCSI"/>
									<MiningField name="BMXBMI"/>
								</MiningSchema>
								<Node id="1">
									<True/>
									<Node id="16" score="-0.0037292829306310076">
										<SimplePredicate field="LBXWBCSI" operator="isMissing"/>
									</Node>
									<Node id="2" score="0.17023368120076116">
										<SimplePredicate field="LBXWBCSI" operator="lessThan" value="4.25"/>
									</Node>
									<Node id="3">
										<SimplePredicate field="LBXWBCSI" operator="greaterOrEqual" value="4.25"/>
										<Node id="15" score="-0.00920953785884126">
											<SimplePredicate field="HHR" operator="isMissing"/>
										</Node>
										<Node id="4" score="-0.09049309736037281">
											<SimplePredicate field="HHR" operator="lessThan" value="0.7825354103620299"/>
										</Node>
										<Node id="5">
											<SimplePredicate field="HHR" operator="greaterOrEqual" value="0.7825354103620299"/>
											<Node id="14" score="0.0042611838664596375">
												<SimplePredicate field="BMXBMI" operator="isMissing"/>
											</Node>
											<Node id="6" score="-0.014376959626459443">
												<SimplePredicate field="BMXBMI" operator="lessThan" value="32.150000000000006"/>
											</Node>
											<Node id="7">
												<SimplePredicate field="BMXBMI" operator="greaterOrEqual" value="32.150000000000006"/>
												<Node id="13" score="0.06146100355162509">
													<SimplePredicate field="RIDAGEYR" operator="isMissing"/>
												</Node>
												<Node id="8" score="0.13090386667553197">
													<SimplePredicate field="RIDAGEYR" operator="lessThan" value="69.5"/>
												</Node>
												<Node id="9">
													<SimplePredicate field="RIDAGEYR" operator="greaterOrEqual" value="69.5"/>
													<Node id="10" score="0.10148418816242069">
														<SimplePredicate field="LBXWBCSI" operator="lessThan" value="9.05"/>
													</Node>
													<Node id="11" score="-0.10448306587597461">
														<SimplePredicate field="LBXWBCSI" operator="greaterOrEqual" value="9.05"/>
													</Node>
												</Node>
											</Node>
										</Node>
									</Node>
								</Node>
							</TreeModel>
						</Segment>
						<Segment id="13">
							<True/>
							<TreeModel functionName="regression">
								<MiningSchema>
									<MiningField name="HHR"/>
									<MiningField name="RIDAGEYR"/>
									<MiningField name="INDFMPIR"/>
									<MiningField name="LBXWBCSI"/>
								</MiningSchema>
								<Node id="1">
									<True/>
									<Node id="16" score="0.002387613716475773">
										<SimplePredicate field="LBXWBCSI" operator="isMissing"/>
									</Node>
									<Node id="2" score="0.15571375321216713">
										<SimplePredicate field="LBXWBCSI" operator="lessThan" value="4.25"/>
									</Node>
									<Node id="3">
										<SimplePredicate field="LBXWBCSI" operator="greaterOrEqual" value="4.25"/>
										<Node id="4" score="-0.18792161545114722">
											<SimplePredicate field="LBXWBCSI" operator="lessThan" value="4.35"/>
										</Node>
										<Node id="5">
											<SimplePredicate field="LBXWBCSI" operator="greaterOrEqual" value="4.35"/>
											<Node id="14" score="0.0023824872353520933">
												<SimplePredicate field="HHR" operator="isMissing"/>
											</Node>
											<Node id="6" score="-0.02238881061791158">
												<SimplePredicate field="HHR" operator="lessThan" value="1.10080776496645"/>
											</Node>
											<Node id="7">
												<SimplePredicate field="HHR" operator="greaterOrEqual" value="1.10080776496645"/>
												<Node id="13" score="0.05441498143743945">
													<SimplePredicate field="INDFMPIR" operator="isMissing"/>
												</Node>
												<Node id="8">
													<SimplePredicate field="INDFMPIR" operator="lessThan" value="1.3597327367658751"/>
													<Node id="11" score="-0.019136223579389062">
														<SimplePredicate field="RIDAGEYR" operator="isMissing"/>
													</Node>
													<Node id="9" score="0.13438433933271968">
														<SimplePredicate field="RIDAGEYR" operator="lessThan" value="58.076891022967146"/>
													</Node>
													<Node id="10" score="-0.057516364307416246">
														<SimplePredicate field="RIDAGEYR" operator="greaterOrEqual" value="58.076891022967146"/>
													</Node>
												</Node>
												<Node id="12" score="0.13680840782241127">
													<SimplePredicate field="INDFMPIR" operator="greaterOrEqual" value="1.3597327367658751"/>
												</Node>
											</Node>
										</Node>
									</Node>
								</Node>
							</TreeModel>
						</Segment>
						<Segment id="14">
							<True/>
							<TreeModel functionName="regression">
								<MiningSchema>
									<MiningField name="HHR"/>
									<MiningField name="RIDAGEYR"/>
									<MiningField name="INDFMPIR"/>
								</MiningSchema>
								<Node id="1">
									<True/>
									<Node id="16" score="0.0019423400648396227">
										<SimplePredicate field="HHR" operator="isMissing"/>
									</Node>
									<Node id="2" score="-0.08426014147890218">
										<SimplePredicate field="HHR" operator="lessThan" value="0.718824009799918"/>
									</Node>
									<Node id="3">
										<SimplePredicate field="HHR" operator="greaterOrEqual" value="0.718824009799918"/>
										<Node id="15" score="0.010965264171061731">
											<SimplePredicate field="RIDAGEYR" operator="isMissing"/>
										</Node>
										<Node id="4" score="0.06281498741767387">
											<SimplePredicate field="RIDAGEYR" operator="lessThan" value="58.067503108060905"/>
										</Node>
										<Node id="5">
											<SimplePredicate field="RIDAGEYR" operator="greaterOrEqual" value="58.067503108060905"/>
											<Node id="14" score="-0.0014275421354704304">
												<SimplePredicate field="INDFMPIR" operator="isMissing"/>
											</Node>
											<Node id="6" score="0.18753914123498044">
												<SimplePredicate field="INDFMPIR" operator="lessThan" value="0.64"/>
											</Node>
											<Node id="7">
												<SimplePredicate field="INDFMPIR" operator="greaterOrEqual" value="0.64"/>
												<Node id="8" score="-0.07836877820505773">
													<SimplePredicate field="INDFMPIR" operator="lessThan" value="0.8393069206806829"/>
												</Node>
												<Node id="9">
													<SimplePredicate field="INDFMPIR" operator="greaterOrEqual" value="0.8393069206806829"/>
													<Node id="10" score="0.1006805437368114">
														<SimplePredicate field="INDFMPIR" operator="lessThan" value="1.025"/>
													</Node>
													<Node id="11" score="-0.0034694142001972144">
														<SimplePredicate field="INDFMPIR" operator="greaterOrEqual" value="1.025"/>
													</Node>
												</Node>
											</Node>
										</Node>
									</Node>
								</Node>
							</TreeModel>
						</Segment>
						<Segment id="15">
							<True/>
							<TreeModel functionName="regression">
								<MiningSchema>
									<MiningField name="HHR"/>
									<MiningField name="INDFMPIR"/>
									<MiningField name="LBXWBCSI"/>
									<MiningField name="drink"/>
								</MiningSchema>
								<Node id="1">
									<True/>
									<Node id="16" score="0.005115749843262131">
										<SimplePredicate field="LBXWBCSI" operator="isMissing"/>
									</Node>
									<Node id="2" score="0.04216790931109618">
										<SimplePredicate field="LBXWBCSI" operator="lessThan" value="6.6118560148403045"/>
									</Node>
									<Node id="3">
										<SimplePredicate field="LBXWBCSI" operator="greaterOrEqual" value="6.6118560148403045"/>
										<Node id="15" score="-0.017953574348909006">
											<SimplePredicate field="drink" operator="isMissing"/>
										</Node>
										<Node id="4">
											<SimplePredicate field="drink" operator="lessThan" value="1.5"/>
											<Node id="7" score="-0.0703236874022144">
												<SimplePredicate field="HHR" operator="isMissing"/>
											</Node>
											<Node id="5" score="-0.10210675832016095">
												<SimplePredicate field="HHR" operator="lessThan" value="1.150644083969465"/>
											</Node>
											<Node id="6" score="0.0799235569371693">
												<SimplePredicate field="HHR" operator="greaterOrEqual" value="1.150644083969465"/>
											</Node>
										</Node>
										<Node id="8">
											<SimplePredicate field="drink" operator="greaterOrEqual" value="1.5"/>
											<Node id="14" score="0.006714217220124562">
												<SimplePredicate field="INDFMPIR" operator="isMissing"/>
											</Node>
											<Node id="9">
												<SimplePredicate field="INDFMPIR" operator="lessThan" value="1.14"/>
												<Node id="10" score="0.09224821619908574">
													<SimplePredicate field="INDFMPIR" operator="lessThan" value="0.7050000000000001"/>
												</Node>
												<Node id="11" score="-0.08843044602437378">
													<SimplePredicate field="INDFMPIR" operator="greaterOrEqual" value="0.7050000000000001"/>
												</Node>
											</Node>
											<Node id="13" score="0.05866727211937414">
												<SimplePredicate field="INDFMPIR" operator="greaterOrEqual" value="1.14"/>
											</Node>
										</Node>
									</Node>
								</Node>
							</TreeModel>
						</Segment>
						<Segment id="16">
							<True/>
							<TreeModel functionName="regression">
								<MiningSchema>
									<MiningField name="HHR"/>
									<MiningField name="RIDAGEYR"/>
									<MiningField name="INDFMPIR"/>
									<MiningField name="LBXWBCSI"/>
									<MiningField name="BMXBMI"/>
								</MiningSchema>
								<Node id="1">
									<True/>
									<Node id="16" score="0.009422875679517804">
										<SimplePredicate field="BMXBMI" operator="isMissing"/>
									</Node>
									<Node id="2" score="-0.03341714358333727">
										<SimplePredicate field="BMXBMI" operator="lessThan" value="25.384502470633"/>
									</Node>
									<Node id="3">
										<SimplePredicate field="BMXBMI" operator="greaterOrEqual" value="25.384502470633"/>
										<Node id="15" score="0.03209986791207103">
											<SimplePredicate field="LBXWBCSI" operator="isMissing"/>
										</Node>
										<Node id="4" score="0.16460060962874665">
											<SimplePredicate field="LBXWBCSI" operator="lessThan" value="5.101504221372305"/>
										</Node>
										<Node id="5">
											<SimplePredicate field="LBXWBCSI" operator="greaterOrEqual" value="5.101504221372305"/>
											<Node id="14" score="0.020727892680210705">
												<SimplePredicate field="HHR" operator="isMissing"/>
											</Node>
											<Node id="6" score="-0.10435971463848069">
												<SimplePredicate field="HHR" operator="lessThan" value="0.7725116362334405"/>
											</Node>
											<Node id="7">
												<SimplePredicate field="HHR" operator="greaterOrEqual" value="0.7725116362334405"/>
												<Node id="13" score="0.03364942456965946">
													<SimplePredicate field="RIDAGEYR" operator="isMissing"/>
												</Node>
												<Node id="8" score="0.11858397315421361">
													<SimplePredicate field="RIDAGEYR" operator="lessThan" value="58.067503108060905"/>
												</Node>
												<Node id="9">
													<SimplePredicate field="RIDAGEYR" operator="greaterOrEqual" value="58.067503108060905"/>
													<Node id="12" score="0.013246997418565493">
														<SimplePredicate field="INDFMPIR" operator="isMissing"/>
													</Node>
													<Node id="10" score="-0.01566584578452433">
														<SimplePredicate field="INDFMPIR" operator="lessThan" value="1.966182149332015"/>
													</Node>
													<Node id="11" score="0.09876385759671848">
														<SimplePredicate field="INDFMPIR" operator="greaterOrEqual" value="1.966182149332015"/>
													</Node>
												</Node>
											</Node>
										</Node>
									</Node>
								</Node>
							</TreeModel>
						</Segment>
						<Segment id="17">
							<True/>
							<TreeModel functionName="regression">
								<MiningSchema>
									<MiningField name="INDFMPIR"/>
									<MiningField name="LBXWBCSI"/>
									<MiningField name="drink"/>
								</MiningSchema>
								<Node id="1">
									<True/>
									<Node id="16" score="0.0011992219524595638">
										<SimplePredicate field="LBXWBCSI" operator="isMissing"/>
									</Node>
									<Node id="2" score="0.1426596805167488">
										<SimplePredicate field="LBXWBCSI" operator="lessThan" value="4.25"/>
									</Node>
									<Node id="3">
										<SimplePredicate field="LBXWBCSI" operator="greaterOrEqual" value="4.25"/>
										<Node id="15" score="-0.003967759082762039">
											<SimplePredicate field="drink" operator="isMissing"/>
										</Node>
										<Node id="4">
											<SimplePredicate field="drink" operator="lessThan" value="1.5"/>
											<Node id="5" score="0.1752273044138184">
												<SimplePredicate field="LBXWBCSI" operator="lessThan" value="6.05"/>
											</Node>
											<Node id="6" score="-0.0703641754989491">
												<SimplePredicate field="LBXWBCSI" operator="greaterOrEqual" value="6.05"/>
											</Node>
										</Node>
										<Node id="8">
											<SimplePredicate field="drink" operator="greaterOrEqual" value="1.5"/>
											<Node id="9" score="-0.06500892687412645">
												<SimplePredicate field="LBXWBCSI" operator="lessThan" value="5.497106697980779"/>
											</Node>
											<Node id="10">
												<SimplePredicate field="LBXWBCSI" operator="greaterOrEqual" value="5.497106697980779"/>
												<Node id="13" score="0.028380166588756257">
													<SimplePredicate field="INDFMPIR" operator="isMissing"/>
												</Node>
												<Node id="11" score="0.1625280633204142">
													<SimplePredicate field="INDFMPIR" operator="lessThan" value="0.655"/>
												</Node>
												<Node id="12" score="0.021982940299529796">
													<SimplePredicate field="INDFMPIR" operator="greaterOrEqual" value="0.655"/>
												</Node>
											</Node>
										</Node>
									</Node>
								</Node>
							</TreeModel>
						</Segment>
						<Segment id="18">
							<True/>
							<TreeModel functionName="regression">
								<MiningSchema>
									<MiningField name="HHR"/>
									<MiningField name="LBXWBCSI"/>
									<MiningField name="BMXBMI"/>
								</MiningSchema>
								<Node id="1">
									<True/>
									<Node id="16" score="0.0028749508154117614">
										<SimplePredicate field="BMXBMI" operator="isMissing"/>
									</Node>
									<Node id="2">
										<SimplePredicate field="BMXBMI" operator="lessThan" value="32.19454085577745"/>
										<Node id="11" score="-0.015262345811887769">
											<SimplePredicate field="HHR" operator="isMissing"/>
										</Node>
										<Node id="3">
											<SimplePredicate field="HHR" operator="lessThan" value="1.10080776496645"/>
											<Node id="6" score="-0.038657296737711885">
												<SimplePredicate field="LBXWBCSI" operator="isMissing"/>
											</Node>
											<Node id="4" score="0.01991022043253672">
												<SimplePredicate field="LBXWBCSI" operator="lessThan" value="6.702036871609745"/>
											</Node>
											<Node id="5" score="-0.06807477111546233">
												<SimplePredicate field="LBXWBCSI" operator="greaterOrEqual" value="6.702036871609745"/>
											</Node>
										</Node>
										<Node id="7">
											<SimplePredicate field="HHR" operator="greaterOrEqual" value="1.10080776496645"/>
											<Node id="10" score="0.034077005820138735">
												<SimplePredicate field="LBXWBCSI" operator="isMissing"/>
											</Node>
											<Node id="8" score="-0.07441169745748222">
												<SimplePredicate field="LBXWBCSI" operator="lessThan" value="5.45"/>
											</Node>
											<Node id="9" score="0.06780878751149987">
												<SimplePredicate field="LBXWBCSI" operator="greaterOrEqual" value="5.45"/>
											</Node>
										</Node>
									</Node>
									<Node id="12">
										<SimplePredicate field="BMXBMI" operator="greaterOrEqual" value="32.19454085577745"/>
										<Node id="15" score="0.060181718660625265">
											<SimplePredicate field="HHR" operator="isMissing"/>
										</Node>
										<Node id="13" score="-0.07810335796510423">
											<SimplePredicate field="HHR" operator="lessThan" value="0.8515734265734265"/>
										</Node>
										<Node id="14" score="0.08903647874394677">
											<SimplePredicate field="HHR" operator="greaterOrEqual" value="0.8515734265734265"/>
										</Node>
									</Node>
								</Node>
							</TreeModel>
						</Segment>
						<Segment id="19">
							<True/>
							<TreeModel functionName="regression">
								<MiningSchema>
									<MiningField name="Hypertension"/>
									<MiningField name="RIDAGEYR"/>
									<MiningField name="INDFMPIR"/>
									<MiningField name="drink"/>
								</MiningSchema>
								<Node id="1">
									<True/>
									<Node id="16" score="0.006752762952436763">
										<SimplePredicate field="INDFMPIR" operator="isMissing"/>
									</Node>
									<Node id="2">
										<SimplePredicate field="INDFMPIR" operator="lessThan" value="2.307826038114725"/>
										<Node id="14" score="-0.007788259885370319">
											<SimplePredicate field="Hypertension" operator="isMissing"/>
										</Node>
										<Node id="3">
											<SimplePredicate field="Hypertension" operator="lessThan" value="1.5"/>
											<Node id="4" score="0.17504351011231215">
												<SimplePredicate field="INDFMPIR" operator="lessThan" value="0.525"/>
											</Node>
											<Node id="5">
												<SimplePredicate field="INDFMPIR" operator="greaterOrEqual" value="0.525"/>
												<Node id="8" score="-0.02757670043004064">
													<SimplePredicate field="RIDAGEYR" operator="isMissing"/>
												</Node>
												<Node id="6" score="0.03084922728145092">
													<SimplePredicate field="RIDAGEYR" operator="lessThan" value="62.5"/>
												</Node>
												<Node id="7" score="-0.0428615019520872">
													<SimplePredicate field="RIDAGEYR" operator="greaterOrEqual" value="62.5"/>
												</Node>
											</Node>
										</Node>
										<Node id="10">
											<SimplePredicate field="Hypertension" operator="greaterOrEqual" value="1.5"/>
											<Node id="13" score="0.062123048985245156">
												<SimplePredicate field="drink" operator="isMissing"/>
											</Node>
											<Node id="11" score="-0.0830209906809755">
												<SimplePredicate field="drink" operator="lessThan" value="1.5"/>
											</Node>
											<Node id="12" score="0.18368118220570495">
												<SimplePredicate field="drink" operator="greaterOrEqual" value="1.5"/>
											</Node>
										</Node>
									</Node>
									<Node id="15" score="0.057826178856253865">
										<SimplePredicate field="INDFMPIR" operator="greaterOrEqual" value="2.307826038114725"/>
									</Node>
								</Node>
							</TreeModel>
						</Segment>
						<Segment id="20">
							<True/>
							<TreeModel functionName="regression">
								<MiningSchema>
									<MiningField name="HHR"/>
									<MiningField name="RIDAGEYR"/>
									<MiningField name="LBXWBCSI"/>
									<MiningField name="BMXBMI"/>
								</MiningSchema>
								<Node id="1">
									<True/>
									<Node id="16" score="-0.0021148064916623925">
										<SimplePredicate field="LBXWBCSI" operator="isMissing"/>
									</Node>
									<Node id="2" score="0.14153332741853178">
										<SimplePredicate field="LBXWBCSI" operator="lessThan" value="4.25"/>
									</Node>
									<Node id="3">
										<SimplePredicate field="LBXWBCSI" operator="greaterOrEqual" value="4.25"/>
										<Node id="15" score="-0.007120373556604329">
											<SimplePredicate field="BMXBMI" operator="isMissing"/>
										</Node>
										<Node id="4">
											<SimplePredicate field="BMXBMI" operator="lessThan" value="39.349999999999994"/>
											<Node id="5">
												<SimplePredicate field="BMXBMI" operator="lessThan" value="38.95"/>
												<Node id="11" score="-0.008023375006759566">
													<SimplePredicate field="HHR" operator="isMissing"/>
												</Node>
												<Node id="6" score="-0.023819391182448735">
													<SimplePredicate field="HHR" operator="lessThan" value="1.10080776496645"/>
												</Node>
												<Node id="7">
													<SimplePredicate field="HHR" operator="greaterOrEqual" value="1.10080776496645"/>
													<Node id="10" score="0.02356865734461877">
														<SimplePredicate field="RIDAGEYR" operator="isMissing"/>
													</Node>
													<Node id="8" score="0.006185715760692958">
														<SimplePredicate field="RIDAGEYR" operator="lessThan" value="79.86234327661805"/>
													</Node>
													<Node id="9" score="0.20717597782483518">
														<SimplePredicate field="RIDAGEYR" operator="greaterOrEqual" value="79.86234327661805"/>
													</Node>
												</Node>
											</Node>
											<Node id="12" score="-0.13481369007749486">
												<SimplePredicate field="BMXBMI" operator="greaterOrEqual" value="38.95"/>
											</Node>
										</Node>
										<Node id="14" score="0.09582059565213169">
											<SimplePredicate field="BMXBMI" operator="greaterOrEqual" value="39.349999999999994"/>
										</Node>
									</Node>
								</Node>
							</TreeModel>
						</Segment>
						<Segment id="21">
							<True/>
							<TreeModel functionName="regression">
								<MiningSchema>
									<MiningField name="carace"/>
									<MiningField name="RIDAGEYR"/>
									<MiningField name="LBXWBCSI"/>
									<MiningField name="drink"/>
								</MiningSchema>
								<Node id="1">
									<True/>
									<Node id="16" score="0.003614344501971474">
										<SimplePredicate field="LBXWBCSI" operator="isMissing"/>
									</Node>
									<Node id="2">
										<SimplePredicate field="LBXWBCSI" operator="lessThan" value="6.814594716543795"/>
										<Node id="8" score="0.031352051754657606">
											<SimplePredicate field="carace" operator="isMissing"/>
										</Node>
										<Node id="3" score="0.07608279417113456">
											<SimplePredicate field="carace" operator="lessThan" value="3.5"/>
										</Node>
										<Node id="4">
											<SimplePredicate field="carace" operator="greaterOrEqual" value="3.5"/>
											<Node id="7" score="-0.01141968004503933">
												<SimplePredicate field="RIDAGEYR" operator="isMissing"/>
											</Node>
											<Node id="5" score="0.09705100985112222">
												<SimplePredicate field="RIDAGEYR" operator="lessThan" value="63.5"/>
											</Node>
											<Node id="6" score="-0.04864001481333006">
												<SimplePredicate field="RIDAGEYR" operator="greaterOrEqual" value="63.5"/>
											</Node>
										</Node>
									</Node>
									<Node id="9">
										<SimplePredicate field="LBXWBCSI" operator="greaterOrEqual" value="6.814594716543795"/>
										<Node id="15" score="-0.01644963807217126">
											<SimplePredicate field="drink" operator="isMissing"/>
										</Node>
										<Node id="10">
											<SimplePredicate field="drink" operator="lessThan" value="1.5"/>
											<Node id="11" score="-0.1744540005017331">
												<SimplePredicate field="LBXWBCSI" operator="lessThan" value="7.191721914382651"/>
											</Node>
											<Node id="12" score="-0.037234843248530616">
												<SimplePredicate field="LBXWBCSI" operator="greaterOrEqual" value="7.191721914382651"/>
											</Node>
										</Node>
										<Node id="14" score="0.006951047441066022">
											<SimplePredicate field="drink" operator="greaterOrEqual" value="1.5"/>
										</Node>
									</Node>
								</Node>
							</TreeModel>
						</Segment>
						<Segment id="22">
							<True/>
							<TreeModel functionName="regression">
								<MiningSchema>
									<MiningField name="Hypertension"/>
									<MiningField name="RIDAGEYR"/>
									<MiningField name="BMXBMI"/>
								</MiningSchema>
								<Node id="1">
									<True/>
									<Node id="16" score="5.196674837896513E-5">
										<SimplePredicate field="RIDAGEYR" operator="isMissing"/>
									</Node>
									<Node id="2">
										<SimplePredicate field="RIDAGEYR" operator="lessThan" value="69.0759458732791"/>
										<Node id="11" score="0.024925087899368727">
											<SimplePredicate field="BMXBMI" operator="isMissing"/>
										</Node>
										<Node id="3" score="-0.04370457921526907">
											<SimplePredicate field="BMXBMI" operator="lessThan" value="24.05"/>
										</Node>
										<Node id="4">
											<SimplePredicate field="BMXBMI" operator="greaterOrEqual" value="24.05"/>
											<Node id="5" score="0.13570593987279775">
												<SimplePredicate field="BMXBMI" operator="lessThan" value="27.15"/>
											</Node>
											<Node id="6">
												<SimplePredicate field="BMXBMI" operator="greaterOrEqual" value="27.15"/>
												<Node id="7" score="-0.028819412533970176">
													<SimplePredicate field="BMXBMI" operator="lessThan" value="31.75"/>
												</Node>
												<Node id="8" score="0.08332762852061606">
													<SimplePredicate field="BMXBMI" operator="greaterOrEqual" value="31.75"/>
												</Node>
											</Node>
										</Node>
									</Node>
									<Node id="12">
										<SimplePredicate field="RIDAGEYR" operator="greaterOrEqual" value="69.0759458732791"/>
										<Node id="15" score="-0.020908931883912553">
											<SimplePredicate field="Hypertension" operator="isMissing"/>
										</Node>
										<Node id="13" score="-0.03199192961587957">
											<SimplePredicate field="Hypertension" operator="lessThan" value="1.5"/>
										</Node>
										<Node id="14" score="0.17558962249907029">
											<SimplePredicate field="Hypertension" operator="greaterOrEqual" value="1.5"/>
										</Node>
									</Node>
								</Node>
							</TreeModel>
						</Segment>
						<Segment id="23">
							<True/>
							<TreeModel functionName="regression">
								<MiningSchema>
									<MiningField name="carace"/>
									<MiningField name="HHR"/>
									<MiningField name="INDFMPIR"/>
									<MiningField name="LBXWBCSI"/>
								</MiningSchema>
								<Node id="1">
									<True/>
									<Node id="16" score="0.008484257969191519">
										<SimplePredicate field="LBXWBCSI" operator="isMissing"/>
									</Node>
									<Node id="2">
										<SimplePredicate field="LBXWBCSI" operator="lessThan" value="10.81756491297855"/>
										<Node id="14" score="0.014436371795875536">
											<SimplePredicate field="INDFMPIR" operator="isMissing"/>
										</Node>
										<Node id="3">
											<SimplePredicate field="INDFMPIR" operator="lessThan" value="2.3079770698293602"/>
											<Node id="4">
												<SimplePredicate field="INDFMPIR" operator="lessThan" value="1.834365566875785"/>
												<Node id="7" score="0.015644380184396678">
													<SimplePredicate field="carace" operator="isMissing"/>
												</Node>
												<Node id="5" score="0.009146887283264937">
													<SimplePredicate field="carace" operator="lessThan" value="4.5"/>
												</Node>
												<Node id="6" score="0.15245270293600388">
													<SimplePredicate field="carace" operator="greaterOrEqual" value="4.5"/>
												</Node>
											</Node>
											<Node id="8">
												<SimplePredicate field="INDFMPIR" operator="greaterOrEqual" value="1.834365566875785"/>
												<Node id="11" score="-0.07315620397536476">
													<SimplePredicate field="HHR" operator="isMissing"/>
												</Node>
												<Node id="9" score="-0.13275461333298608">
													<SimplePredicate field="HHR" operator="lessThan" value="1.029091997230635"/>
												</Node>
												<Node id="10" score="-0.012752410707505313">
													<SimplePredicate field="HHR" operator="greaterOrEqual" value="1.029091997230635"/>
												</Node>
											</Node>
										</Node>
										<Node id="13" score="0.06399430265419119">
											<SimplePredicate field="INDFMPIR" operator="greaterOrEqual" value="2.3079770698293602"/>
										</Node>
									</Node>
									<Node id="15" score="-0.07001750994496327">
										<SimplePredicate field="LBXWBCSI" operator="greaterOrEqual" value="10.81756491297855"/>
									</Node>
								</Node>
							</TreeModel>
						</Segment>
						<Segment id="24">
							<True/>
							<TreeModel functionName="regression">
								<MiningSchema>
									<MiningField name="HHR"/>
									<MiningField name="LBXWBCSI"/>
									<MiningField name="drink"/>
								</MiningSchema>
								<Node id="1">
									<True/>
									<Node id="16" score="0.002371298078185982">
										<SimplePredicate field="LBXWBCSI" operator="isMissing"/>
									</Node>
									<Node id="2" score="0.13283754770855613">
										<SimplePredicate field="LBXWBCSI" operator="lessThan" value="4.25"/>
									</Node>
									<Node id="3">
										<SimplePredicate field="LBXWBCSI" operator="greaterOrEqual" value="4.25"/>
										<Node id="15" score="-0.002284431835630958">
											<SimplePredicate field="HHR" operator="isMissing"/>
										</Node>
										<Node id="4" score="-0.0842308489340474">
											<SimplePredicate field="HHR" operator="lessThan" value="0.704779142847206"/>
										</Node>
										<Node id="5">
											<SimplePredicate field="HHR" operator="greaterOrEqual" value="0.704779142847206"/>
											<Node id="14" score="0.005185020342366293">
												<SimplePredicate field="drink" operator="isMissing"/>
											</Node>
											<Node id="6">
												<SimplePredicate field="drink" operator="lessThan" value="1.5"/>
												<Node id="7" score="0.16722361608172062">
													<SimplePredicate field="LBXWBCSI" operator="lessThan" value="6.05"/>
												</Node>
												<Node id="8" score="-0.05430952563142832">
													<SimplePredicate field="LBXWBCSI" operator="greaterOrEqual" value="6.05"/>
												</Node>
											</Node>
											<Node id="10">
												<SimplePredicate field="drink" operator="greaterOrEqual" value="1.5"/>
												<Node id="11" score="-0.05859559279776986">
													<SimplePredicate field="LBXWBCSI" operator="lessThan" value="5.472244939301165"/>
												</Node>
												<Node id="12" score="0.03210965505186327">
													<SimplePredicate field="LBXWBCSI" operator="greaterOrEqual" value="5.472244939301165"/>
												</Node>
											</Node>
										</Node>
									</Node>
								</Node>
							</TreeModel>
						</Segment>
						<Segment id="25">
							<True/>
							<TreeModel functionName="regression">
								<MiningSchema>
									<MiningField name="RIDAGEYR"/>
									<MiningField name="INDFMPIR"/>
									<MiningField name="LBXWBCSI"/>
									<MiningField name="BMXBMI"/>
								</MiningSchema>
								<Node id="1">
									<True/>
									<Node id="16" score="0.00646857797817942">
										<SimplePredicate field="BMXBMI" operator="isMissing"/>
									</Node>
									<Node id="2">
										<SimplePredicate field="BMXBMI" operator="lessThan" value="32.710216170363154"/>
										<Node id="8" score="-0.007537768366548306">
											<SimplePredicate field="INDFMPIR" operator="isMissing"/>
										</Node>
										<Node id="3" score="-0.056612962920430665">
											<SimplePredicate field="INDFMPIR" operator="lessThan" value="0.8966607425501569"/>
										</Node>
										<Node id="4">
											<SimplePredicate field="INDFMPIR" operator="greaterOrEqual" value="0.8966607425501569"/>
											<Node id="5" score="0.19159252482580302">
												<SimplePredicate field="INDFMPIR" operator="lessThan" value="0.9400800402462485"/>
											</Node>
											<Node id="6" score="-0.002386179243342616">
												<SimplePredicate field="INDFMPIR" operator="greaterOrEqual" value="0.9400800402462485"/>
											</Node>
										</Node>
									</Node>
									<Node id="9">
										<SimplePredicate field="BMXBMI" operator="greaterOrEqual" value="32.710216170363154"/>
										<Node id="15" score="0.05544147206379432">
											<SimplePredicate field="LBXWBCSI" operator="isMissing"/>
										</Node>
										<Node id="10" score="0.09783802528842217">
											<SimplePredicate field="LBXWBCSI" operator="lessThan" value="9.05"/>
										</Node>
										<Node id="11">
											<SimplePredicate field="LBXWBCSI" operator="greaterOrEqual" value="9.05"/>
											<Node id="14" score="-0.019061208845503174">
												<SimplePredicate field="RIDAGEYR" operator="isMissing"/>
											</Node>
											<Node id="12" score="0.13882050488242778">
												<SimplePredicate field="RIDAGEYR" operator="lessThan" value="70.5"/>
											</Node>
											<Node id="13" score="-0.10757065442025233">
												<SimplePredicate field="RIDAGEYR" operator="greaterOrEqual" value="70.5"/>
											</Node>
										</Node>
									</Node>
								</Node>
							</TreeModel>
						</Segment>
						<Segment id="26">
							<True/>
							<TreeModel functionName="regression">
								<MiningSchema>
									<MiningField name="carace"/>
									<MiningField name="HHR"/>
									<MiningField name="INDFMPIR"/>
									<MiningField name="BMXBMI"/>
								</MiningSchema>
								<Node id="1">
									<True/>
									<Node id="16" score="-2.211767426736038E-4">
										<SimplePredicate field="carace" operator="isMissing"/>
									</Node>
									<Node id="2">
										<SimplePredicate field="carace" operator="lessThan" value="4.5"/>
										<Node id="11" score="-0.005943611564077228">
											<SimplePredicate field="INDFMPIR" operator="isMissing"/>
										</Node>
										<Node id="3">
											<SimplePredicate field="INDFMPIR" operator="lessThan" value="1.255"/>
											<Node id="4" score="-5.971140181757442E-4">
												<SimplePredicate field="INDFMPIR" operator="lessThan" value="1.0236059224279601"/>
											</Node>
											<Node id="5" score="-0.08101906413085799">
												<SimplePredicate field="INDFMPIR" operator="greaterOrEqual" value="1.0236059224279601"/>
											</Node>
										</Node>
										<Node id="7">
											<SimplePredicate field="INDFMPIR" operator="greaterOrEqual" value="1.255"/>
											<Node id="10" score="0.01569027074034221">
												<SimplePredicate field="HHR" operator="isMissing"/>
											</Node>
											<Node id="8" score="-0.024299847936070804">
												<SimplePredicate field="HHR" operator="lessThan" value="1.0294423360491298"/>
											</Node>
											<Node id="9" score="0.07083793439894404">
												<SimplePredicate field="HHR" operator="greaterOrEqual" value="1.0294423360491298"/>
											</Node>
										</Node>
									</Node>
									<Node id="12">
										<SimplePredicate field="carace" operator="greaterOrEqual" value="4.5"/>
										<Node id="15" score="0.08427304605237251">
											<SimplePredicate field="BMXBMI" operator="isMissing"/>
										</Node>
										<Node id="13" score="0.17072229473240585">
											<SimplePredicate field="BMXBMI" operator="lessThan" value="28.6847868909361"/>
										</Node>
										<Node id="14" score="-0.018531465891450962">
											<SimplePredicate field="BMXBMI" operator="greaterOrEqual" value="28.6847868909361"/>
										</Node>
									</Node>
								</Node>
							</TreeModel>
						</Segment>
						<Segment id="27">
							<True/>
							<TreeModel functionName="regression">
								<MiningSchema>
									<MiningField name="carace"/>
									<MiningField name="RIDAGEYR"/>
									<MiningField name="BMXBMI"/>
								</MiningSchema>
								<Node id="1">
									<True/>
									<Node id="16" score="0.006193871665571575">
										<SimplePredicate field="carace" operator="isMissing"/>
									</Node>
									<Node id="2">
										<SimplePredicate field="carace" operator="lessThan" value="4.5"/>
										<Node id="11" score="0.0011679497413521662">
											<SimplePredicate field="BMXBMI" operator="isMissing"/>
										</Node>
										<Node id="3" score="-0.019807889579459628">
											<SimplePredicate field="BMXBMI" operator="lessThan" value="27.65"/>
										</Node>
										<Node id="4">
											<SimplePredicate field="BMXBMI" operator="greaterOrEqual" value="27.65"/>
											<Node id="5">
												<SimplePredicate field="BMXBMI" operator="lessThan" value="31.033049818605647"/>
												<Node id="8" score="0.06741231997398643">
													<SimplePredicate field="RIDAGEYR" operator="isMissing"/>
												</Node>
												<Node id="6" score="0.010771973530275125">
													<SimplePredicate field="RIDAGEYR" operator="lessThan" value="71.88608352234584"/>
												</Node>
												<Node id="7" score="0.13267184957217554">
													<SimplePredicate field="RIDAGEYR" operator="greaterOrEqual" value="71.88608352234584"/>
												</Node>
											</Node>
											<Node id="9" score="2.3459498811820528E-4">
												<SimplePredicate field="BMXBMI" operator="greaterOrEqual" value="31.033049818605647"/>
											</Node>
										</Node>
									</Node>
									<Node id="12">
										<SimplePredicate field="carace" operator="greaterOrEqual" value="4.5"/>
										<Node id="15" score="0.07943748995145199">
											<SimplePredicate field="BMXBMI" operator="isMissing"/>
										</Node>
										<Node id="13" score="0.14973895424212968">
											<SimplePredicate field="BMXBMI" operator="lessThan" value="29.780269678426002"/>
										</Node>
										<Node id="14" score="-0.03621975775256616">
											<SimplePredicate field="BMXBMI" operator="greaterOrEqual" value="29.780269678426002"/>
										</Node>
									</Node>
								</Node>
							</TreeModel>
						</Segment>
						<Segment id="28">
							<True/>
							<TreeModel functionName="regression">
								<MiningSchema>
									<MiningField name="carace"/>
									<MiningField name="HHR"/>
									<MiningField name="INDFMPIR"/>
								</MiningSchema>
								<Node id="1">
									<True/>
									<Node id="16" score="0.0027870693567521765">
										<SimplePredicate field="HHR" operator="isMissing"/>
									</Node>
									<Node id="2">
										<SimplePredicate field="HHR" operator="lessThan" value="1.0239229889439598"/>
										<Node id="3">
											<SimplePredicate field="HHR" operator="lessThan" value="1.0177221535693701"/>
											<Node id="6" score="-0.00909397331590667">
												<SimplePredicate field="carace" operator="isMissing"/>
											</Node>
											<Node id="4" score="-0.07831947224307412">
												<SimplePredicate field="carace" operator="lessThan" value="2.5"/>
											</Node>
											<Node id="5" score="0.00559409379963624">
												<SimplePredicate field="carace" operator="greaterOrEqual" value="2.5"/>
											</Node>
										</Node>
										<Node id="7" score="-0.17771935286292018">
											<SimplePredicate field="HHR" operator="greaterOrEqual" value="1.0177221535693701"/>
										</Node>
									</Node>
									<Node id="9">
										<SimplePredicate field="HHR" operator="greaterOrEqual" value="1.0239229889439598"/>
										<Node id="15" score="0.025195607835611557">
											<SimplePredicate field="INDFMPIR" operator="isMissing"/>
										</Node>
										<Node id="10" score="-0.017769395009545455">
											<SimplePredicate field="INDFMPIR" operator="lessThan" value="1.255"/>
										</Node>
										<Node id="11">
											<SimplePredicate field="INDFMPIR" operator="greaterOrEqual" value="1.255"/>
											<Node id="14" score="0.06701104538725267">
												<SimplePredicate field="carace" operator="isMissing"/>
											</Node>
											<Node id="12" score="0.11218121475199128">
												<SimplePredicate field="carace" operator="lessThan" value="3.5"/>
											</Node>
											<Node id="13" score="-0.016446219915216775">
												<SimplePredicate field="carace" operator="greaterOrEqual" value="3.5"/>
											</Node>
										</Node>
									</Node>
								</Node>
							</TreeModel>
						</Segment>
						<Segment id="29">
							<True/>
							<TreeModel functionName="regression">
								<MiningSchema>
									<MiningField name="carace"/>
									<MiningField name="INDFMPIR"/>
									<MiningField name="LBXWBCSI"/>
									<MiningField name="BMXBMI"/>
								</MiningSchema>
								<Node id="1">
									<True/>
									<Node id="16" score="0.004716151467407109">
										<SimplePredicate field="LBXWBCSI" operator="isMissing"/>
									</Node>
									<Node id="2">
										<SimplePredicate field="LBXWBCSI" operator="lessThan" value="10.42586820351425"/>
										<Node id="3">
											<SimplePredicate field="LBXWBCSI" operator="lessThan" value="9.86783858910203"/>
											<Node id="9" score="0.006198800004012475">
												<SimplePredicate field="BMXBMI" operator="isMissing"/>
											</Node>
											<Node id="4">
												<SimplePredicate field="BMXBMI" operator="lessThan" value="28.28976699565535"/>
												<Node id="7" score="-0.011079330744592402">
													<SimplePredicate field="carace" operator="isMissing"/>
												</Node>
												<Node id="5" score="-0.01936970441498663">
													<SimplePredicate field="carace" operator="lessThan" value="4.5"/>
												</Node>
												<Node id="6" score="0.14332887886650003">
													<SimplePredicate field="carace" operator="greaterOrEqual" value="4.5"/>
												</Node>
											</Node>
											<Node id="8" score="0.027900132224260202">
												<SimplePredicate field="BMXBMI" operator="greaterOrEqual" value="28.28976699565535"/>
											</Node>
										</Node>
										<Node id="10" score="0.16996901328687317">
											<SimplePredicate field="LBXWBCSI" operator="greaterOrEqual" value="9.86783858910203"/>
										</Node>
									</Node>
									<Node id="12">
										<SimplePredicate field="LBXWBCSI" operator="greaterOrEqual" value="10.42586820351425"/>
										<Node id="15" score="-0.0627310217608374">
											<SimplePredicate field="INDFMPIR" operator="isMissing"/>
										</Node>
										<Node id="13" score="-0.12445895744217679">
											<SimplePredicate field="INDFMPIR" operator="lessThan" value="1.115"/>
										</Node>
										<Node id="14" score="0.0071496601425656905">
											<SimplePredicate field="INDFMPIR" operator="greaterOrEqual" value="1.115"/>
										</Node>
									</Node>
								</Node>
							</TreeModel>
						</Segment>
						<Segment id="30">
							<True/>
							<TreeModel functionName="regression">
								<MiningSchema>
									<MiningField name="carace"/>
									<MiningField name="LBXWBCSI"/>
									<MiningField name="BMXBMI"/>
								</MiningSchema>
								<Node id="1">
									<True/>
									<Node id="16" score="0.0031867521665541487">
										<SimplePredicate field="LBXWBCSI" operator="isMissing"/>
									</Node>
									<Node id="2">
										<SimplePredicate field="LBXWBCSI" operator="lessThan" value="10.42586820351425"/>
										<Node id="3">
											<SimplePredicate field="LBXWBCSI" operator="lessThan" value="9.79682208262384"/>
											<Node id="12" score="0.004401212694197448">
												<SimplePredicate field="BMXBMI" operator="isMissing"/>
											</Node>
											<Node id="4" score="0.10995164898827739">
												<SimplePredicate field="BMXBMI" operator="lessThan" value="20.5359701961046"/>
											</Node>
											<Node id="5">
												<SimplePredicate field="BMXBMI" operator="greaterOrEqual" value="20.5359701961046"/>
												<Node id="6" score="-0.023958832144158157">
													<SimplePredicate field="BMXBMI" operator="lessThan" value="27.6585773796658"/>
												</Node>
												<Node id="7">
													<SimplePredicate field="BMXBMI" operator="greaterOrEqual" value="27.6585773796658"/>
													<Node id="10" score="0.02293831314129187">
														<SimplePredicate field="carace" operator="isMissing"/>
													</Node>
													<Node id="8" score="-0.0767882435099601">
														<SimplePredicate field="carace" operator="lessThan" value="1.5"/>
													</Node>
													<Node id="9" score="0.038527260969003635">
														<SimplePredicate field="carace" operator="greaterOrEqual" value="1.5"/>
													</Node>
												</Node>
											</Node>
										</Node>
										<Node id="13" score="0.12940955259698547">
											<SimplePredicate field="LBXWBCSI" operator="greaterOrEqual" value="9.79682208262384"/>
										</Node>
									</Node>
									<Node id="15" score="-0.0496821186341636">
										<SimplePredicate field="LBXWBCSI" operator="greaterOrEqual" value="10.42586820351425"/>
									</Node>
								</Node>
							</TreeModel>
						</Segment>
						<Segment id="31">
							<True/>
							<TreeModel functionName="regression">
								<MiningSchema>
									<MiningField name="HHR"/>
									<MiningField name="RIDAGEYR"/>
									<MiningField name="LBXWBCSI"/>
								</MiningSchema>
								<Node id="1">
									<True/>
									<Node id="16" score="0.0019436199643518106">
										<SimplePredicate field="HHR" operator="isMissing"/>
									</Node>
									<Node id="2" score="-0.04941258841039848">
										<SimplePredicate field="HHR" operator="lessThan" value="0.794946147473074"/>
									</Node>
									<Node id="3">
										<SimplePredicate field="HHR" operator="greaterOrEqual" value="0.794946147473074"/>
										<Node id="4">
											<SimplePredicate field="HHR" operator="lessThan" value="0.910422448350293"/>
											<Node id="10" score="0.0665864095832464">
												<SimplePredicate field="RIDAGEYR" operator="isMissing"/>
											</Node>
											<Node id="5">
												<SimplePredicate field="RIDAGEYR" operator="lessThan" value="73.8232599303592"/>
												<Node id="6" score="0.11921120612315841">
													<SimplePredicate field="RIDAGEYR" operator="lessThan" value="64.91898475063499"/>
												</Node>
												<Node id="7" score="-0.06774587894526318">
													<SimplePredicate field="RIDAGEYR" operator="greaterOrEqual" value="64.91898475063499"/>
												</Node>
											</Node>
											<Node id="9" score="0.1631316793561953">
												<SimplePredicate field="RIDAGEYR" operator="greaterOrEqual" value="73.8232599303592"/>
											</Node>
										</Node>
										<Node id="11">
											<SimplePredicate field="HHR" operator="greaterOrEqual" value="0.910422448350293"/>
											<Node id="14" score="0.0025517893374349876">
												<SimplePredicate field="LBXWBCSI" operator="isMissing"/>
											</Node>
											<Node id="12" score="0.033797924795843495">
												<SimplePredicate field="LBXWBCSI" operator="lessThan" value="6.702036871609745"/>
											</Node>
											<Node id="13" score="-0.01715731149017653">
												<SimplePredicate field="LBXWBCSI" operator="greaterOrEqual" value="6.702036871609745"/>
											</Node>
										</Node>
									</Node>
								</Node>
							</TreeModel>
						</Segment>
						<Segment id="32">
							<True/>
							<TreeModel functionName="regression">
								<MiningSchema>
									<MiningField name="INDFMPIR"/>
								</MiningSchema>
								<Node id="1">
									<True/>
									<Node id="16" score="-0.0057440495948123775">
										<SimplePredicate field="INDFMPIR" operator="isMissing"/>
									</Node>
									<Node id="2">
										<SimplePredicate field="INDFMPIR" operator="lessThan" value="1.255"/>
										<Node id="3">
											<SimplePredicate field="INDFMPIR" operator="lessThan" value="1.0223934768745702"/>
											<Node id="4" score="-0.027367247522836848">
												<SimplePredicate field="INDFMPIR" operator="lessThan" value="0.8966607425501569"/>
											</Node>
											<Node id="5" score="0.12092874043410558">
												<SimplePredicate field="INDFMPIR" operator="greaterOrEqual" value="0.8966607425501569"/>
											</Node>
										</Node>
										<Node id="7" score="-0.06958202058709007">
											<SimplePredicate field="INDFMPIR" operator="greaterOrEqual" value="1.0223934768745702"/>
										</Node>
									</Node>
									<Node id="9">
										<SimplePredicate field="INDFMPIR" operator="greaterOrEqual" value="1.255"/>
										<Node id="10" score="0.1290494292083165">
											<SimplePredicate field="INDFMPIR" operator="lessThan" value="1.4"/>
										</Node>
										<Node id="11">
											<SimplePredicate field="INDFMPIR" operator="greaterOrEqual" value="1.4"/>
											<Node id="12" score="-0.11567293516071396">
												<SimplePredicate field="INDFMPIR" operator="lessThan" value="1.445158536788075"/>
											</Node>
											<Node id="13" score="0.012419846751450326">
												<SimplePredicate field="INDFMPIR" operator="greaterOrEqual" value="1.445158536788075"/>
											</Node>
										</Node>
									</Node>
								</Node>
							</TreeModel>
						</Segment>
						<Segment id="33">
							<True/>
							<TreeModel functionName="regression">
								<MiningSchema>
									<MiningField name="HHR"/>
									<MiningField name="BMXBMI"/>
								</MiningSchema>
								<Node id="1">
									<True/>
									<Node id="16" score="0.0012053468611676157">
										<SimplePredicate field="HHR" operator="isMissing"/>
									</Node>
									<Node id="2">
										<SimplePredicate field="HHR" operator="lessThan" value="1.24404466501241"/>
										<Node id="11" score="-0.0037393679099294434">
											<SimplePredicate field="BMXBMI" operator="isMissing"/>
										</Node>
										<Node id="3">
											<SimplePredicate field="BMXBMI" operator="lessThan" value="27.65"/>
											<Node id="4">
												<SimplePredicate field="BMXBMI" operator="lessThan" value="26.51149608900305"/>
												<Node id="5" score="-0.019601069641080066">
													<SimplePredicate field="BMXBMI" operator="lessThan" value="25.299999999999997"/>
												</Node>
												<Node id="6" score="0.07550853903153594">
													<SimplePredicate field="BMXBMI" operator="greaterOrEqual" value="25.299999999999997"/>
												</Node>
											</Node>
											<Node id="8" score="-0.07959948348197773">
												<SimplePredicate field="BMXBMI" operator="greaterOrEqual" value="26.51149608900305"/>
											</Node>
										</Node>
										<Node id="10" score="0.01746430979695228">
											<SimplePredicate field="BMXBMI" operator="greaterOrEqual" value="27.65"/>
										</Node>
									</Node>
									<Node id="12">
										<SimplePredicate field="HHR" operator="greaterOrEqual" value="1.24404466501241"/>
										<Node id="15" score="0.0742161970615637">
											<SimplePredicate field="BMXBMI" operator="isMissing"/>
										</Node>
										<Node id="13" score="0.16519542378936128">
											<SimplePredicate field="BMXBMI" operator="lessThan" value="31.576286677434098"/>
										</Node>
										<Node id="14" score="-0.051549204591568254">
											<SimplePredicate field="BMXBMI" operator="greaterOrEqual" value="31.576286677434098"/>
										</Node>
									</Node>
								</Node>
							</TreeModel>
						</Segment>
						<Segment id="34">
							<True/>
							<TreeModel functionName="regression">
								<MiningSchema>
									<MiningField name="HHR"/>
									<MiningField name="INDFMPIR"/>
								</MiningSchema>
								<Node id="1">
									<True/>
									<Node id="16" score="-0.0035505147214731497">
										<SimplePredicate field="INDFMPIR" operator="isMissing"/>
									</Node>
									<Node id="2" score="-0.03317080027102151">
										<SimplePredicate field="INDFMPIR" operator="lessThan" value="0.8966607425501569"/>
									</Node>
									<Node id="3">
										<SimplePredicate field="INDFMPIR" operator="greaterOrEqual" value="0.8966607425501569"/>
										<Node id="4" score="0.09984103294035514">
											<SimplePredicate field="INDFMPIR" operator="lessThan" value="1.0223934768745702"/>
										</Node>
										<Node id="5">
											<SimplePredicate field="INDFMPIR" operator="greaterOrEqual" value="1.0223934768745702"/>
											<Node id="6" score="-0.08250447329282645">
												<SimplePredicate field="INDFMPIR" operator="lessThan" value="1.179993925341405"/>
											</Node>
											<Node id="7">
												<SimplePredicate field="INDFMPIR" operator="greaterOrEqual" value="1.179993925341405"/>
												<Node id="8" score="0.13341186043456416">
													<SimplePredicate field="INDFMPIR" operator="lessThan" value="1.2149999999999999"/>
												</Node>
												<Node id="9">
													<SimplePredicate field="INDFMPIR" operator="greaterOrEqual" value="1.2149999999999999"/>
													<Node id="12" score="0.0053682634105558374">
														<SimplePredicate field="HHR" operator="isMissing"/>
													</Node>
													<Node id="10" score="-0.02338172349234659">
														<SimplePredicate field="HHR" operator="lessThan" value="1.09053651266766"/>
													</Node>
													<Node id="11" score="0.05614444995681093">
														<SimplePredicate field="HHR" operator="greaterOrEqual" value="1.09053651266766"/>
													</Node>
												</Node>
											</Node>
										</Node>
									</Node>
								</Node>
							</TreeModel>
						</Segment>
						<Segment id="35">
							<True/>
							<TreeModel functionName="regression">
								<MiningSchema>
									<MiningField name="HHR"/>
									<MiningField name="LBXWBCSI"/>
								</MiningSchema>
								<Node id="1">
									<True/>
									<Node id="16" score="0.0033824296221607072">
										<SimplePredicate field="LBXWBCSI" operator="isMissing"/>
									</Node>
									<Node id="2">
										<SimplePredicate field="LBXWBCSI" operator="lessThan" value="11.82944818926045"/>
										<Node id="14" score="0.007943700134801326">
											<SimplePredicate field="HHR" operator="isMissing"/>
										</Node>
										<Node id="3">
											<SimplePredicate field="HHR" operator="lessThan" value="1.24404466501241"/>
											<Node id="4">
												<SimplePredicate field="HHR" operator="lessThan" value="1.2008403361344548"/>
												<Node id="5" score="0.14398701087991858">
													<SimplePredicate field="LBXWBCSI" operator="lessThan" value="4.75"/>
												</Node>
												<Node id="6">
													<SimplePredicate field="LBXWBCSI" operator="greaterOrEqual" value="4.75"/>
													<Node id="7" score="-0.0034374410093190103">
														<SimplePredicate field="LBXWBCSI" operator="lessThan" value="9.75"/>
													</Node>
													<Node id="8" score="0.08257254332664168">
														<SimplePredicate field="LBXWBCSI" operator="greaterOrEqual" value="9.75"/>
													</Node>
												</Node>
											</Node>
											<Node id="11" score="-0.06459494544100146">
												<SimplePredicate field="HHR" operator="greaterOrEqual" value="1.2008403361344548"/>
											</Node>
										</Node>
										<Node id="13" score="0.08971632968797622">
											<SimplePredicate field="HHR" operator="greaterOrEqual" value="1.24404466501241"/>
										</Node>
									</Node>
									<Node id="15" score="-0.08913534060923317">
										<SimplePredicate field="LBXWBCSI" operator="greaterOrEqual" value="11.82944818926045"/>
									</Node>
								</Node>
							</TreeModel>
						</Segment>
						<Segment id="36">
							<True/>
							<TreeModel functionName="regression">
								<MiningSchema>
									<MiningField name="RIDAGEYR"/>
									<MiningField name="INDFMPIR"/>
								</MiningSchema>
								<Node id="1">
									<True/>
									<Node id="16" score="0.00194274579870149">
										<SimplePredicate field="INDFMPIR" operator="isMissing"/>
									</Node>
									<Node id="2" score="0.09818727227908412">
										<SimplePredicate field="INDFMPIR" operator="lessThan" value="0.64"/>
									</Node>
									<Node id="3">
										<SimplePredicate field="INDFMPIR" operator="greaterOrEqual" value="0.64"/>
										<Node id="4" score="-0.04882869704871212">
											<SimplePredicate field="INDFMPIR" operator="lessThan" value="0.859407588141039"/>
										</Node>
										<Node id="5">
											<SimplePredicate field="INDFMPIR" operator="greaterOrEqual" value="0.859407588141039"/>
											<Node id="6" score="0.07084321017855935">
												<SimplePredicate field="INDFMPIR" operator="lessThan" value="1.025"/>
											</Node>
											<Node id="7">
												<SimplePredicate field="INDFMPIR" operator="greaterOrEqual" value="1.025"/>
												<Node id="8" score="-0.0643649757670756">
													<SimplePredicate field="INDFMPIR" operator="lessThan" value="1.1780379379307848"/>
												</Node>
												<Node id="9">
													<SimplePredicate field="INDFMPIR" operator="greaterOrEqual" value="1.1780379379307848"/>
													<Node id="12" score="0.00989141718972281">
														<SimplePredicate field="RIDAGEYR" operator="isMissing"/>
													</Node>
													<Node id="10" score="-0.011111635509360576">
														<SimplePredicate field="RIDAGEYR" operator="lessThan" value="73.5"/>
													</Node>
													<Node id="11" score="0.04880404970973001">
														<SimplePredicate field="RIDAGEYR" operator="greaterOrEqual" value="73.5"/>
													</Node>
												</Node>
											</Node>
										</Node>
									</Node>
								</Node>
							</TreeModel>
						</Segment>
						<Segment id="37">
							<True/>
							<TreeModel functionName="regression">
								<MiningSchema>
									<MiningField name="HHR"/>
									<MiningField name="RIDAGEYR"/>
									<MiningField name="INDFMPIR"/>
								</MiningSchema>
								<Node id="1">
									<True/>
									<Node id="16" score="-0.0037879049684410916">
										<SimplePredicate field="HHR" operator="isMissing"/>
									</Node>
									<Node id="2" score="-0.07081217928069126">
										<SimplePredicate field="HHR" operator="lessThan" value="0.718824009799918"/>
									</Node>
									<Node id="3">
										<SimplePredicate field="HHR" operator="greaterOrEqual" value="0.718824009799918"/>
										<Node id="15" score="0.002404243556557214">
											<SimplePredicate field="INDFMPIR" operator="isMissing"/>
										</Node>
										<Node id="4">
											<SimplePredicate field="INDFMPIR" operator="lessThan" value="2.387129927813075"/>
											<Node id="5">
												<SimplePredicate field="INDFMPIR" operator="lessThan" value="2.231791839556535"/>
												<Node id="11" score="-0.0030873495827981427">
													<SimplePredicate field="RIDAGEYR" operator="isMissing"/>
												</Node>
												<Node id="6" score="0.025114699516619668">
													<SimplePredicate field="RIDAGEYR" operator="lessThan" value="69.13172911386934"/>
												</Node>
												<Node id="7">
													<SimplePredicate field="RIDAGEYR" operator="greaterOrEqual" value="69.13172911386934"/>
													<Node id="8" score="0.011441523362513605">
														<SimplePredicate field="HHR" operator="lessThan" value="1.0148156277436349"/>
													</Node>
													<Node id="9" score="-0.06323001421267682">
														<SimplePredicate field="HHR" operator="greaterOrEqual" value="1.0148156277436349"/>
													</Node>
												</Node>
											</Node>
											<Node id="12" score="-0.1302951182608292">
												<SimplePredicate field="INDFMPIR" operator="greaterOrEqual" value="2.231791839556535"/>
											</Node>
										</Node>
										<Node id="14" score="0.04006420268611538">
											<SimplePredicate field="INDFMPIR" operator="greaterOrEqual" value="2.387129927813075"/>
										</Node>
									</Node>
								</Node>
							</TreeModel>
						</Segment>
						<Segment id="38">
							<True/>
							<TreeModel functionName="regression">
								<MiningSchema>
									<MiningField name="smoker"/>
									<MiningField name="carace"/>
									<MiningField name="BMXBMI"/>
								</MiningSchema>
								<Node id="1">
									<True/>
									<Node id="16" score="-0.0011467952098211318">
										<SimplePredicate field="BMXBMI" operator="isMissing"/>
									</Node>
									<Node id="2" score="0.10849072494820766">
										<SimplePredicate field="BMXBMI" operator="lessThan" value="18.32295525819065"/>
									</Node>
									<Node id="3">
										<SimplePredicate field="BMXBMI" operator="greaterOrEqual" value="18.32295525819065"/>
										<Node id="4">
											<SimplePredicate field="BMXBMI" operator="lessThan" value="27.65676627028735"/>
											<Node id="7" score="-0.01910082516648447">
												<SimplePredicate field="carace" operator="isMissing"/>
											</Node>
											<Node id="5" score="-0.02834995709161254">
												<SimplePredicate field="carace" operator="lessThan" value="4.5"/>
											</Node>
											<Node id="6" score="0.14792761606965177">
												<SimplePredicate field="carace" operator="greaterOrEqual" value="4.5"/>
											</Node>
										</Node>
										<Node id="8">
											<SimplePredicate field="BMXBMI" operator="greaterOrEqual" value="27.65676627028735"/>
											<Node id="9">
												<SimplePredicate field="BMXBMI" operator="lessThan" value="31.0365287579596"/>
												<Node id="12" score="0.0587297703587481">
													<SimplePredicate field="smoker" operator="isMissing"/>
												</Node>
												<Node id="10" score="-0.03741991255882391">
													<SimplePredicate field="smoker" operator="lessThan" value="1.5"/>
												</Node>
												<Node id="11" score="0.09800217605747472">
													<SimplePredicate field="smoker" operator="greaterOrEqual" value="1.5"/>
												</Node>
											</Node>
											<Node id="13" score="-0.010245109261291976">
												<SimplePredicate field="BMXBMI" operator="greaterOrEqual" value="31.0365287579596"/>
											</Node>
										</Node>
									</Node>
								</Node>
							</TreeModel>
						</Segment>
						<Segment id="39">
							<True/>
							<TreeModel functionName="regression">
								<MiningSchema>
									<MiningField name="Hypertension"/>
									<MiningField name="RIDAGEYR"/>
									<MiningField name="INDFMPIR"/>
									<MiningField name="LBXWBCSI"/>
									<MiningField name="BMXBMI"/>
								</MiningSchema>
								<Node id="1">
									<True/>
									<Node id="16" score="-9.322313663753744E-4">
										<SimplePredicate field="RIDAGEYR" operator="isMissing"/>
									</Node>
									<Node id="2">
										<SimplePredicate field="RIDAGEYR" operator="lessThan" value="69.0759458732791"/>
										<Node id="11" score="0.016413202563775518">
											<SimplePredicate field="BMXBMI" operator="isMissing"/>
										</Node>
										<Node id="3" score="-0.04866849799112207">
											<SimplePredicate field="BMXBMI" operator="lessThan" value="23.65"/>
										</Node>
										<Node id="4">
											<SimplePredicate field="BMXBMI" operator="greaterOrEqual" value="23.65"/>
											<Node id="10" score="0.039346754187882284">
												<SimplePredicate field="INDFMPIR" operator="isMissing"/>
											</Node>
											<Node id="5">
												<SimplePredicate field="INDFMPIR" operator="lessThan" value="1.054009698578155"/>
												<Node id="8" score="0.08968508233816058">
													<SimplePredicate field="LBXWBCSI" operator="isMissing"/>
												</Node>
												<Node id="6" score="0.13425856126461294">
													<SimplePredicate field="LBXWBCSI" operator="lessThan" value="8.8"/>
												</Node>
												<Node id="7" score="-0.07820835495147666">
													<SimplePredicate field="LBXWBCSI" operator="greaterOrEqual" value="8.8"/>
												</Node>
											</Node>
											<Node id="9" score="0.013359819438821648">
												<SimplePredicate field="INDFMPIR" operator="greaterOrEqual" value="1.054009698578155"/>
											</Node>
										</Node>
									</Node>
									<Node id="12">
										<SimplePredicate field="RIDAGEYR" operator="greaterOrEqual" value="69.0759458732791"/>
										<Node id="15" score="-0.014828150227201476">
											<SimplePredicate field="Hypertension" operator="isMissing"/>
										</Node>
										<Node id="13" score="-0.024817554501478184">
											<SimplePredicate field="Hypertension" operator="lessThan" value="1.5"/>
										</Node>
										<Node id="14" score="0.1567846924334496">
											<SimplePredicate field="Hypertension" operator="greaterOrEqual" value="1.5"/>
										</Node>
									</Node>
								</Node>
							</TreeModel>
						</Segment>
						<Segment id="40">
							<True/>
							<TreeModel functionName="regression">
								<MiningSchema>
									<MiningField name="RIDAGEYR"/>
									<MiningField name="INDFMPIR"/>
									<MiningField name="LBXWBCSI"/>
									<MiningField name="BMXBMI"/>
								</MiningSchema>
								<Node id="1">
									<True/>
									<Node id="16" score="0.0016447829608732152">
										<SimplePredicate field="INDFMPIR" operator="isMissing"/>
									</Node>
									<Node id="2" score="0.07979238248874251">
										<SimplePredicate field="INDFMPIR" operator="lessThan" value="0.525"/>
									</Node>
									<Node id="3">
										<SimplePredicate field="INDFMPIR" operator="greaterOrEqual" value="0.525"/>
										<Node id="15" score="-0.001143939163397871">
											<SimplePredicate field="RIDAGEYR" operator="isMissing"/>
										</Node>
										<Node id="4">
											<SimplePredicate field="RIDAGEYR" operator="lessThan" value="51.1392013216391"/>
											<Node id="7" score="0.06224312406603841">
												<SimplePredicate field="BMXBMI" operator="isMissing"/>
											</Node>
											<Node id="5" score="0.149368630851968">
												<SimplePredicate field="BMXBMI" operator="lessThan" value="31.13721870778825"/>
											</Node>
											<Node id="6" score="-0.05038253104748033">
												<SimplePredicate field="BMXBMI" operator="greaterOrEqual" value="31.13721870778825"/>
											</Node>
										</Node>
										<Node id="8">
											<SimplePredicate field="RIDAGEYR" operator="greaterOrEqual" value="51.1392013216391"/>
											<Node id="14" score="-0.006375180553711313">
												<SimplePredicate field="BMXBMI" operator="isMissing"/>
											</Node>
											<Node id="9" score="-0.019273358549596054">
												<SimplePredicate field="BMXBMI" operator="lessThan" value="33.650000000000006"/>
											</Node>
											<Node id="10">
												<SimplePredicate field="BMXBMI" operator="greaterOrEqual" value="33.650000000000006"/>
												<Node id="13" score="0.04750402662000721">
													<SimplePredicate field="LBXWBCSI" operator="isMissing"/>
												</Node>
												<Node id="11" score="0.10652595730240098">
													<SimplePredicate field="LBXWBCSI" operator="lessThan" value="9.05"/>
												</Node>
												<Node id="12" score="-0.037749873254561576">
													<SimplePredicate field="LBXWBCSI" operator="greaterOrEqual" value="9.05"/>
												</Node>
											</Node>
										</Node>
									</Node>
								</Node>
							</TreeModel>
						</Segment>
						<Segment id="41">
							<True/>
							<TreeModel functionName="regression">
								<MiningSchema>
									<MiningField name="HHR"/>
									<MiningField name="RIDAGEYR"/>
									<MiningField name="INDFMPIR"/>
									<MiningField name="LBXWBCSI"/>
								</MiningSchema>
								<Node id="1">
									<True/>
									<Node id="16" score="0.0036717884490729616">
										<SimplePredicate field="INDFMPIR" operator="isMissing"/>
									</Node>
									<Node id="2">
										<SimplePredicate field="INDFMPIR" operator="lessThan" value="2.3079770698293602"/>
										<Node id="3">
											<SimplePredicate field="INDFMPIR" operator="lessThan" value="2.2387959951628"/>
											<Node id="12" score="-0.0020674316027518916">
												<SimplePredicate field="LBXWBCSI" operator="isMissing"/>
											</Node>
											<Node id="4" score="0.1480106590823327">
												<SimplePredicate field="LBXWBCSI" operator="lessThan" value="4.75"/>
											</Node>
											<Node id="5">
												<SimplePredicate field="LBXWBCSI" operator="greaterOrEqual" value="4.75"/>
												<Node id="11" score="-0.007449979158968005">
													<SimplePredicate field="RIDAGEYR" operator="isMissing"/>
												</Node>
												<Node id="6" score="0.01794119377593664">
													<SimplePredicate field="RIDAGEYR" operator="lessThan" value="70.0124032413587"/>
												</Node>
												<Node id="7">
													<SimplePredicate field="RIDAGEYR" operator="greaterOrEqual" value="70.0124032413587"/>
													<Node id="10" score="-0.029629620339260206">
														<SimplePredicate field="HHR" operator="isMissing"/>
													</Node>
													<Node id="8" score="0.021933521971117073">
														<SimplePredicate field="HHR" operator="lessThan" value="0.910010111223458"/>
													</Node>
													<Node id="9" score="-0.05135566344756525">
														<SimplePredicate field="HHR" operator="greaterOrEqual" value="0.910010111223458"/>
													</Node>
												</Node>
											</Node>
										</Node>
										<Node id="13" score="-0.13505732611402377">
